digraph Tree {
node [shape=box, fontname="helvetica"] ;
edge [fontname="helvetica"] ;
0 [label="variance <= 0.32\ngini = 0.494\nsamples = 1234\nvalue = [683.0, 551.0]\nclass = 0"] ;
1 [label="skewness <= 7.565\ngini = 0.299\nsamples = 590\nvalue = [108, 482]\nclass = 1"] ;
0 -> 1 [labeldistance=2.5, labelangle=45, headlabel="True"] ;
2 [label="variance <= -0.459\ngini = 0.127\nsamples = 497\nvalue = [34, 463]\nclass = 1"] ;
1 -> 2 ;
3 [label="curtosis <= 6.219\ngini = 0.069\nsamples = 419\nvalue = [15, 404]\nclass = 1"] ;
2 -> 3 ;
4 [label="skewness <= 7.293\ngini = 0.007\nsamples = 284\nvalue = [1, 283]\nclass = 1"] ;
3 -> 4 ;
5 [label="gini = 0.0\nsamples = 280\nvalue = [0, 280]\nclass = 1"] ;
4 -> 5 ;
6 [label="skewness <= 7.349\ngini = 0.375\nsamples = 4\nvalue = [1, 3]\nclass = 1"] ;
4 -> 6 ;
7 [label="gini = 0.0\nsamples = 1\nvalue = [1, 0]\nclass = 0"] ;
6 -> 7 ;
8 [label="gini = 0.0\nsamples = 3\nvalue = [0, 3]\nclass = 1"] ;
6 -> 8 ;
9 [label="skewness <= -4.675\ngini = 0.186\nsamples = 135\nvalue = [14, 121]\nclass = 1"] ;
3 -> 9 ;
10 [label="gini = 0.0\nsamples = 120\nvalue = [0, 120]\nclass = 1"] ;
9 -> 10 ;
11 [label="variance <= -2.117\ngini = 0.124\nsamples = 15\nvalue = [14, 1]\nclass = 0"] ;
9 -> 11 ;
12 [label="entropy <= -0.228\ngini = 0.5\nsamples = 2\nvalue = [1, 1]\nclass = 0"] ;
11 -> 12 ;
13 [label="gini = 0.0\nsamples = 1\nvalue = [1, 0]\nclass = 0"] ;
12 -> 13 ;
14 [label="gini = 0.0\nsamples = 1\nvalue = [0, 1]\nclass = 1"] ;
12 -> 14 ;
15 [label="gini = 0.0\nsamples = 13\nvalue = [13, 0]\nclass = 0"] ;
11 -> 15 ;
16 [label="curtosis <= 4.841\ngini = 0.369\nsamples = 78\nvalue = [19, 59]\nclass = 1"] ;
2 -> 16 ;
17 [label="skewness <= 5.454\ngini = 0.23\nsamples = 68\nvalue = [9, 59]\nclass = 1"] ;
16 -> 17 ;
18 [label="curtosis <= 2.625\ngini = 0.033\nsamples = 60\nvalue = [1, 59]\nclass = 1"] ;
17 -> 18 ;
19 [label="gini = 0.0\nsamples = 58\nvalue = [0, 58]\nclass = 1"] ;
18 -> 19 ;
20 [label="variance <= -0.365\ngini = 0.5\nsamples = 2\nvalue = [1, 1]\nclass = 0"] ;
18 -> 20 ;
21 [label="gini = 0.0\nsamples = 1\nvalue = [0, 1]\nclass = 1"] ;
20 -> 21 ;
22 [label="gini = 0.0\nsamples = 1\nvalue = [1, 0]\nclass = 0"] ;
20 -> 22 ;
23 [label="gini = 0.0\nsamples = 8\nvalue = [8, 0]\nclass = 0"] ;
17 -> 23 ;
24 [label="gini = 0.0\nsamples = 10\nvalue = [10, 0]\nclass = 0"] ;
16 -> 24 ;
25 [label="variance <= -4.726\ngini = 0.325\nsamples = 93\nvalue = [74, 19]\nclass = 0"] ;
1 -> 25 ;
26 [label="gini = 0.0\nsamples = 19\nvalue = [0, 19]\nclass = 1"] ;
25 -> 26 ;
27 [label="gini = 0.0\nsamples = 74\nvalue = [74, 0]\nclass = 0"] ;
25 -> 27 ;
28 [label="curtosis <= -4.386\ngini = 0.191\nsamples = 644\nvalue = [575, 69]\nclass = 0"] ;
0 -> 28 [labeldistance=2.5, labelangle=-45, headlabel="False"] ;
29 [label="variance <= 3.304\ngini = 0.375\nsamples = 40\nvalue = [10, 30]\nclass = 1"] ;
28 -> 29 ;
30 [label="gini = 0.0\nsamples = 30\nvalue = [0, 30]\nclass = 1"] ;
29 -> 30 ;
31 [label="gini = 0.0\nsamples = 10\nvalue = [10, 0]\nclass = 0"] ;
29 -> 31 ;
32 [label="variance <= 1.509\ngini = 0.121\nsamples = 604\nvalue = [565, 39]\nclass = 0"] ;
28 -> 32 ;
33 [label="curtosis <= -2.243\ngini = 0.361\nsamples = 148\nvalue = [113, 35]\nclass = 0"] ;
32 -> 33 ;
34 [label="skewness <= 5.736\ngini = 0.172\nsamples = 21\nvalue = [2, 19]\nclass = 1"] ;
33 -> 34 ;
35 [label="gini = 0.0\nsamples = 19\nvalue = [0, 19]\nclass = 1"] ;
34 -> 35 ;
36 [label="gini = 0.0\nsamples = 2\nvalue = [2, 0]\nclass = 0"] ;
34 -> 36 ;
37 [label="entropy <= 0.082\ngini = 0.22\nsamples = 127\nvalue = [111, 16]\nclass = 0"] ;
33 -> 37 ;
38 [label="curtosis <= -1.434\ngini = 0.021\nsamples = 95\nvalue = [94, 1]\nclass = 0"] ;
37 -> 38 ;
39 [label="variance <= 0.49\ngini = 0.133\nsamples = 14\nvalue = [13, 1]\nclass = 0"] ;
38 -> 39 ;
40 [label="gini = 0.0\nsamples = 1\nvalue = [0, 1]\nclass = 1"] ;
39 -> 40 ;
41 [label="gini = 0.0\nsamples = 13\nvalue = [13, 0]\nclass = 0"] ;
39 -> 41 ;
42 [label="gini = 0.0\nsamples = 81\nvalue = [81, 0]\nclass = 0"] ;
38 -> 42 ;
43 [label="curtosis <= 1.807\ngini = 0.498\nsamples = 32\nvalue = [17, 15]\nclass = 0"] ;
37 -> 43 ;
44 [label="skewness <= 3.7\ngini = 0.117\nsamples = 16\nvalue = [1, 15]\nclass = 1"] ;
43 -> 44 ;
45 [label="gini = 0.0\nsamples = 15\nvalue = [0, 15]\nclass = 1"] ;
44 -> 45 ;
46 [label="gini = 0.0\nsamples = 1\nvalue = [1, 0]\nclass = 0"] ;
44 -> 46 ;
47 [label="gini = 0.0\nsamples = 16\nvalue = [16, 0]\nclass = 0"] ;
43 -> 47 ;
48 [label="variance <= 2.037\ngini = 0.017\nsamples = 456\nvalue = [452, 4]\nclass = 0"] ;
32 -> 48 ;
49 [label="curtosis <= -2.648\ngini = 0.117\nsamples = 64\nvalue = [60, 4]\nclass = 0"] ;
48 -> 49 ;
50 [label="entropy <= -1.796\ngini = 0.32\nsamples = 5\nvalue = [1, 4]\nclass = 1"] ;
49 -> 50 ;
51 [label="gini = 0.0\nsamples = 1\nvalue = [1, 0]\nclass = 0"] ;
50 -> 51 ;
52 [label="gini = 0.0\nsamples = 4\nvalue = [0, 4]\nclass = 1"] ;
50 -> 52 ;
53 [label="gini = 0.0\nsamples = 59\nvalue = [59, 0]\nclass = 0"] ;
49 -> 53 ;
54 [label="gini = 0.0\nsamples = 392\nvalue = [392, 0]\nclass = 0"] ;
48 -> 54 ;
}